<?xml version="1.0"?>
<!-- DTD for the XMLBIF 0.3 format -->
<!DOCTYPE BIF [
	<!ELEMENT BIF ( NETWORK )*>
	      <!ATTLIST BIF VERSION CDATA #REQUIRED>
	<!ELEMENT NETWORK ( NAME, ( PROPERTY | VARIABLE | DEFINITION )* )>
	<!ELEMENT NAME (#PCDATA)>
	<!ELEMENT VARIABLE ( NAME, ( OUTCOME |  PROPERTY )* ) >
	      <!ATTLIST VARIABLE TYPE (nature|decision|utility) "nature">
	<!ELEMENT OUTCOME (#PCDATA)>
	<!ELEMENT DEFINITION ( FOR | GIVEN | TABLE | PROPERTY )* >
	<!ELEMENT FOR (#PCDATA)>
	<!ELEMENT GIVEN (#PCDATA)>
	<!ELEMENT TABLE (#PCDATA)>
	<!ELEMENT PROPERTY (#PCDATA)>
]>


<BIF VERSION="0.3">
<NETWORK>
<NAME>train_set-FactoryTest_factory-weka.filters.unsupervised.attribute.ReplaceMissingValues</NAME>
<VARIABLE TYPE="nature">
	<NAME>Factory2</NAME>
	<OUTCOME>No</OUTCOME>
	<OUTCOME>Yes</OUTCOME>
	<PROPERTY>position = (144,0)</PROPERTY>
</VARIABLE>
<VARIABLE TYPE="nature">
	<NAME>FixPosition</NAME>
	<OUTCOME>No</OUTCOME>
	<OUTCOME>Yes</OUTCOME>
	<PROPERTY>position = (0,96)</PROPERTY>
</VARIABLE>
<VARIABLE TYPE="nature">
	<NAME>B0B1</NAME>
	<OUTCOME>No</OUTCOME>
	<OUTCOME>Yes</OUTCOME>
	<PROPERTY>position = (72,96)</PROPERTY>
</VARIABLE>
<VARIABLE TYPE="nature">
	<NAME>Route</NAME>
	<OUTCOME>No</OUTCOME>
	<OUTCOME>Yes</OUTCOME>
	<PROPERTY>position = (144,96)</PROPERTY>
</VARIABLE>
<VARIABLE TYPE="nature">
	<NAME>M0M1</NAME>
	<OUTCOME>No</OUTCOME>
	<OUTCOME>Yes</OUTCOME>
	<PROPERTY>position = (216,96)</PROPERTY>
</VARIABLE>
<VARIABLE TYPE="nature">
	<NAME>New1</NAME>
	<OUTCOME>No</OUTCOME>
	<OUTCOME>Yes</OUTCOME>
	<PROPERTY>position = (288,96)</PROPERTY>
</VARIABLE>
<VARIABLE TYPE="nature">
	<NAME>Solved</NAME>
	<OUTCOME>No</OUTCOME>
	<OUTCOME>Yes</OUTCOME>
	<PROPERTY>position = (144,192)</PROPERTY>
</VARIABLE>
<DEFINITION>
<FOR>Factory2</FOR>
<TABLE>
0.4875 0.5125 
</TABLE>
</DEFINITION>
<DEFINITION>
<FOR>FixPosition</FOR>
	<GIVEN>Factory2</GIVEN>
<TABLE>
0.475 0.525 
0.8809523809523809 0.11904761904761904 
</TABLE>
</DEFINITION>
<DEFINITION>
<FOR>B0B1</FOR>
	<GIVEN>Factory2</GIVEN>
<TABLE>
0.925 0.075 
0.4523809523809524 0.5476190476190477 
</TABLE>
</DEFINITION>
<DEFINITION>
<FOR>Route</FOR>
	<GIVEN>Factory2</GIVEN>
<TABLE>
0.925 0.075 
0.9285714285714286 0.07142857142857142 
</TABLE>
</DEFINITION>
<DEFINITION>
<FOR>M0M1</FOR>
	<GIVEN>Factory2</GIVEN>
<TABLE>
0.925 0.075 
0.9285714285714286 0.07142857142857142 
</TABLE>
</DEFINITION>
<DEFINITION>
<FOR>New1</FOR>
	<GIVEN>Factory2</GIVEN>
<TABLE>
0.825 0.175 
0.9761904761904762 0.023809523809523808 
</TABLE>
</DEFINITION>
<DEFINITION>
<FOR>Solved</FOR>
	<GIVEN>FixPosition</GIVEN>
	<GIVEN>B0B1</GIVEN>
	<GIVEN>Route</GIVEN>
	<GIVEN>M0M1</GIVEN>
	<GIVEN>New1</GIVEN>
<TABLE>
0.9444444444444444 0.05555555555555555 
0.125 0.875 
0.16666666666666666 0.8333333333333334 
0.5 0.5 
0.16666666666666666 0.8333333333333334 
0.5 0.5 
0.5 0.5 
0.5 0.5 
0.038461538461538464 0.9615384615384616 
0.5 0.5 
0.5 0.5 
0.5 0.5 
0.5 0.5 
0.5 0.5 
0.5 0.5 
0.5 0.5 
0.038461538461538464 0.9615384615384616 
0.5 0.5 
0.5 0.5 
0.5 0.5 
0.5 0.5 
0.5 0.5 
0.5 0.5 
0.5 0.5 
0.5 0.5 
0.5 0.5 
0.5 0.5 
0.5 0.5 
0.5 0.5 
0.5 0.5 
0.5 0.5 
0.5 0.5 
</TABLE>
</DEFINITION>
</NETWORK>
</BIF>
